digraph Tree {
node [shape=box, style="filled, rounded", color="black", fontname="helvetica"] ;
edge [fontname="helvetica"] ;
0 [label="petal width (cm) <= 0.8\ngini = 0.66\nsamples = 99\nvalue = [55, 50, 45]\nclass = setosa", fillcolor="#fef9f5"] ;
1 [label="gini = 0.0\nsamples = 35\nvalue = [55, 0, 0]\nclass = setosa", fillcolor="#e58139"] ;
0 -> 1 [labeldistance=2.5, labelangle=45, headlabel="True"] ;
2 [label="sepal length (cm) <= 6.25\ngini = 0.5\nsamples = 64\nvalue = [0, 50, 45]\nclass = versicolor", fillcolor="#ebfcf2"] ;
0 -> 2 [labeldistance=2.5, labelangle=-45, headlabel="False"] ;
3 [label="petal width (cm) <= 1.65\ngini = 0.36\nsamples = 32\nvalue = [0, 35, 11]\nclass = versicolor", fillcolor="#77eda9"] ;
2 -> 3 ;
4 [label="sepal width (cm) <= 2.3\ngini = 0.06\nsamples = 25\nvalue = [0, 34, 1]\nclass = versicolor", fillcolor="#3fe685"] ;
3 -> 4 ;
5 [label="sepal width (cm) <= 2.1\ngini = 0.38\nsamples = 4\nvalue = [0, 3, 1]\nclass = versicolor", fillcolor="#7beeab"] ;
4 -> 5 ;
6 [label="gini = 0.0\nsamples = 1\nvalue = [0, 1, 0]\nclass = versicolor", fillcolor="#39e581"] ;
5 -> 6 ;
7 [label="petal width (cm) <= 1.25\ngini = 0.44\nsamples = 3\nvalue = [0, 2, 1]\nclass = versicolor", fillcolor="#9cf2c0"] ;
5 -> 7 ;
8 [label="gini = 0.0\nsamples = 1\nvalue = [0, 1, 0]\nclass = versicolor", fillcolor="#39e581"] ;
7 -> 8 ;
9 [label="sepal length (cm) <= 6.1\ngini = 0.5\nsamples = 2\nvalue = [0, 1, 1]\nclass = versicolor", fillcolor="#ffffff"] ;
7 -> 9 ;
10 [label="gini = 0.0\nsamples = 1\nvalue = [0, 0, 1]\nclass = virginica", fillcolor="#8139e5"] ;
9 -> 10 ;
11 [label="gini = 0.0\nsamples = 1\nvalue = [0, 1, 0]\nclass = versicolor", fillcolor="#39e581"] ;
9 -> 11 ;
12 [label="gini = 0.0\nsamples = 21\nvalue = [0, 31, 0]\nclass = versicolor", fillcolor="#39e581"] ;
4 -> 12 ;
13 [label="sepal width (cm) <= 3.1\ngini = 0.17\nsamples = 7\nvalue = [0, 1, 10]\nclass = virginica", fillcolor="#8e4de8"] ;
3 -> 13 ;
14 [label="gini = 0.0\nsamples = 6\nvalue = [0, 0, 10]\nclass = virginica", fillcolor="#8139e5"] ;
13 -> 14 ;
15 [label="gini = 0.0\nsamples = 1\nvalue = [0, 1, 0]\nclass = versicolor", fillcolor="#39e581"] ;
13 -> 15 ;
16 [label="petal length (cm) <= 4.95\ngini = 0.42\nsamples = 32\nvalue = [0, 15, 34]\nclass = virginica", fillcolor="#b990f0"] ;
2 -> 16 ;
17 [label="gini = 0.0\nsamples = 8\nvalue = [0, 15, 0]\nclass = versicolor", fillcolor="#39e581"] ;
16 -> 17 ;
18 [label="gini = 0.0\nsamples = 24\nvalue = [0, 0, 34]\nclass = virginica", fillcolor="#8139e5"] ;
16 -> 18 ;
}